<?xml version="1.0"?>
<opencv_storage>
<cascade>
  <stageType>BOOST</stageType>
  <featureType>HAAR</featureType>
  <height>24</height>
  <width>36</width>
  <stageParams>
    <boostType>GAB</boostType>
    <minHitRate>9.9500000476837158e-01</minHitRate>
    <maxFalseAlarm>5.0000000000000000e-01</maxFalseAlarm>
    <weightTrimRate>9.4999998807907104e-01</weightTrimRate>
    <maxDepth>1</maxDepth>
    <maxWeakCount>100</maxWeakCount></stageParams>
  <featureParams>
    <maxCatCount>0</maxCatCount>
    <featSize>1</featSize>
    <mode>BASIC</mode></featureParams>
  <stageNum>15</stageNum>
  <stages>
    <!-- stage 0 -->
    <_>
      <maxWeakCount>2</maxWeakCount>
      <stageThreshold>-1.4485040307044983e-01</stageThreshold>
      <weakClassifiers>
        <_>
          <internalNodes>
            0 -1 4 -3.5327298974152654e-05</internalNodes>
          <leafValues>
            6.2500000000000000e-01 -8.3333331346511841e-01</leafValues></_>
        <_>
          <internalNodes>
            0 -1 40 -1.5873969459789805e-05</internalNodes>
          <leafValues>
            7.1741884946823120e-01 -7.6985043287277222e-01</leafValues></_></weakClassifiers></_>
    <!-- stage 1 -->
    <_>
      <maxWeakCount>3</maxWeakCount>
      <stageThreshold>-5.6778532266616821e-01</stageThreshold>
      <weakClassifiers>
        <_>
          <internalNodes>
            0 -1 2 -7.5464755296707153e-02</internalNodes>
          <leafValues>
            1. -5.2173912525177002e-01</leafValues></_>
        <_>
          <internalNodes>
            0 -1 3 -2.8451937396312132e-05</internalNodes>
          <leafValues>
            7.1001106500625610e-01 -7.0582085847854614e-01</leafValues></_>
        <_>
          <internalNodes>
            0 -1 28 -1.6080170098575763e-05</internalNodes>
          <leafValues>
            7.0082205533981323e-01 -7.5605726242065430e-01</leafValues></_></weakClassifiers></_>
    <!-- stage 2 -->
    <_>
      <maxWeakCount>2</maxWeakCount>
      <stageThreshold>7.4848048388957977e-02</stageThreshold>
      <weakClassifiers>
        <_>
          <internalNodes>
            0 -1 15 -1.9267663359642029e-02</internalNodes>
          <leafValues>
            8.1818181276321411e-01 -5.2941179275512695e-01</leafValues></_>
        <_>
          <internalNodes>
            0 -1 12 2.0915813365718350e-05</internalNodes>
          <leafValues>
            -7.4333375692367554e-01 7.3368895053863525e-01</leafValues></_></weakClassifiers></_>
    <!-- stage 3 -->
    <_>
      <maxWeakCount>4</maxWeakCount>
      <stageThreshold>-1.2256177663803101e+00</stageThreshold>
      <weakClassifiers>
        <_>
          <internalNodes>
            0 -1 26 -1.1054812603106257e-05</internalNodes>
          <leafValues>
            6.4383560419082642e-01 -7.0149254798889160e-01</leafValues></_>
        <_>
          <internalNodes>
            0 -1 14 -8.1580132246017456e-02</internalNodes>
          <leafValues>
            9.2282217741012573e-01 -5.5785983800888062e-01</leafValues></_>
        <_>
          <internalNodes>
            0 -1 13 -1.1525626759976149e-03</internalNodes>
          <leafValues>
            -8.4445744752883911e-01 6.5673100948333740e-01</leafValues></_>
        <_>
          <internalNodes>
            0 -1 10 -1.0626697985571809e-05</internalNodes>
          <leafValues>
            7.2042155265808105e-01 -6.2299644947052002e-01</leafValues></_></weakClassifiers></_>
    <!-- stage 4 -->
    <_>
      <maxWeakCount>3</maxWeakCount>
      <stageThreshold>-4.9696069955825806e-01</stageThreshold>
      <weakClassifiers>
        <_>
          <internalNodes>
            0 -1 6 1.9697228708537295e-05</internalNodes>
          <leafValues>
            -6.1038959026336670e-01 7.4603176116943359e-01</leafValues></_>
        <_>
          <internalNodes>
            0 -1 37 -1.1352974070177879e-05</internalNodes>
          <leafValues>
            8.2685661315917969e-01 -5.4960256814956665e-01</leafValues></_>
        <_>
          <internalNodes>
            0 -1 30 1.1647139217529912e-05</internalNodes>
          <leafValues>
            -6.6464334726333618e-01 6.6303145885467529e-01</leafValues></_></weakClassifiers></_>
    <!-- stage 5 -->
    <_>
      <maxWeakCount>3</maxWeakCount>
      <stageThreshold>-6.3106262683868408e-01</stageThreshold>
      <weakClassifiers>
        <_>
          <internalNodes>
            0 -1 47 -1.0924301022896543e-05</internalNodes>
          <leafValues>
            7.6119405031204224e-01 -6.9863015413284302e-01</leafValues></_>
        <_>
          <internalNodes>
            0 -1 17 -6.8802371970377862e-05</internalNodes>
          <leafValues>
            6.9297510385513306e-01 -6.5134572982788086e-01</leafValues></_>
        <_>
          <internalNodes>
            0 -1 31 1.0626697985571809e-05</internalNodes>
          <leafValues>
            -6.2540757656097412e-01 7.4564933776855469e-01</leafValues></_></weakClassifiers></_>
    <!-- stage 6 -->
    <_>
      <maxWeakCount>4</maxWeakCount>
      <stageThreshold>-2.9240933060646057e-01</stageThreshold>
      <weakClassifiers>
        <_>
          <internalNodes>
            0 -1 25 2.0950860343873501e-03</internalNodes>
          <leafValues>
            5.7647061347961426e-01 -8.9090907573699951e-01</leafValues></_>
        <_>
          <internalNodes>
            0 -1 8 9.6384577453136444e-02</internalNodes>
          <leafValues>
            -5.0310814380645752e-01 9.1497528553009033e-01</leafValues></_>
        <_>
          <internalNodes>
            0 -1 46 -1.1054812603106257e-05</internalNodes>
          <leafValues>
            6.2349551916122437e-01 -7.2777295112609863e-01</leafValues></_>
        <_>
          <internalNodes>
            0 -1 5 3.5342547926120460e-04</internalNodes>
          <leafValues>
            4.7811242938041687e-01 -9.8695212602615356e-01</leafValues></_></weakClassifiers></_>
    <!-- stage 7 -->
    <_>
      <maxWeakCount>4</maxWeakCount>
      <stageThreshold>-6.5034687519073486e-02</stageThreshold>
      <weakClassifiers>
        <_>
          <internalNodes>
            0 -1 7 -1.2978328764438629e-01</internalNodes>
          <leafValues>
            9.0697675943374634e-01 -4.0206184983253479e-01</leafValues></_>
        <_>
          <internalNodes>
            0 -1 24 -2.0171445794403553e-03</internalNodes>
          <leafValues>
            -8.0050337314605713e-01 5.0133877992630005e-01</leafValues></_>
        <_>
          <internalNodes>
            0 -1 34 2.6017272830358706e-05</internalNodes>
          <leafValues>
            -8.1299734115600586e-01 4.4190904498100281e-01</leafValues></_>
        <_>
          <internalNodes>
            0 -1 18 -4.0170080028474331e-03</internalNodes>
          <leafValues>
            6.9562149047851563e-01 -5.7470059394836426e-01</leafValues></_></weakClassifiers></_>
    <!-- stage 8 -->
    <_>
      <maxWeakCount>3</maxWeakCount>
      <stageThreshold>-5.6752920150756836e-01</stageThreshold>
      <weakClassifiers>
        <_>
          <internalNodes>
            0 -1 44 -1.0924301022896543e-05</internalNodes>
          <leafValues>
            6.4179104566574097e-01 -5.8904111385345459e-01</leafValues></_>
        <_>
          <internalNodes>
            0 -1 27 1.0864585419767536e-05</internalNodes>
          <leafValues>
            -5.9132105112075806e-01 7.5356560945510864e-01</leafValues></_>
        <_>
          <internalNodes>
            0 -1 21 1.1804447240137961e-05</internalNodes>
          <leafValues>
            -6.9147700071334839e-01 6.1283296346664429e-01</leafValues></_></weakClassifiers></_>
    <!-- stage 9 -->
    <_>
      <maxWeakCount>2</maxWeakCount>
      <stageThreshold>-1.8162606284022331e-02</stageThreshold>
      <weakClassifiers>
        <_>
          <internalNodes>
            0 -1 16 -1.1729863286018372e-01</internalNodes>
          <leafValues>
            8.3333331346511841e-01 -4.3478259444236755e-01</leafValues></_>
        <_>
          <internalNodes>
            0 -1 45 -2.9077174986014143e-05</internalNodes>
          <leafValues>
            4.8954334855079651e-01 -8.5149592161178589e-01</leafValues></_></weakClassifiers></_>
    <!-- stage 10 -->
    <_>
      <maxWeakCount>5</maxWeakCount>
      <stageThreshold>-3.8792899250984192e-01</stageThreshold>
      <weakClassifiers>
        <_>
          <internalNodes>
            0 -1 1 2.4279437959194183e-02</internalNodes>
          <leafValues>
            -4.3157893419265747e-01 9.1111111640930176e-01</leafValues></_>
        <_>
          <internalNodes>
            0 -1 11 -2.4296568334102631e-01</internalNodes>
          <leafValues>
            8.9224576950073242e-01 -3.1385600566864014e-01</leafValues></_>
        <_>
          <internalNodes>
            0 -1 41 2.3156932002166286e-05</internalNodes>
          <leafValues>
            -8.6315494775772095e-01 4.6356719732284546e-01</leafValues></_>
        <_>
          <internalNodes>
            0 -1 0 4.2120431317016482e-04</internalNodes>
          <leafValues>
            -7.2177267074584961e-01 4.9470183253288269e-01</leafValues></_>
        <_>
          <internalNodes>
            0 -1 9 1.5785612049512565e-05</internalNodes>
          <leafValues>
            -5.9039032459259033e-01 6.2571728229522705e-01</leafValues></_></weakClassifiers></_>
    <!-- stage 11 -->
    <_>
      <maxWeakCount>4</maxWeakCount>
      <stageThreshold>-4.9610128998756409e-01</stageThreshold>
      <weakClassifiers>
        <_>
          <internalNodes>
            0 -1 42 2.4550393573008478e-04</internalNodes>
          <leafValues>
            4.6666666865348816e-01 -8.3999997377395630e-01</leafValues></_>
        <_>
          <internalNodes>
            0 -1 38 4.4855719897896051e-04</internalNodes>
          <leafValues>
            3.4105771780014038e-01 -9.6330338716506958e-01</leafValues></_>
        <_>
          <internalNodes>
            0 -1 35 -1.8440675921738148e-04</internalNodes>
          <leafValues>
            -7.0682889223098755e-01 5.1357764005661011e-01</leafValues></_>
        <_>
          <internalNodes>
            0 -1 23 -6.8362593650817871e-02</internalNodes>
          <leafValues>
            8.8196307420730591e-01 -5.1073664426803589e-01</leafValues></_></weakClassifiers></_>
    <!-- stage 12 -->
    <_>
      <maxWeakCount>3</maxWeakCount>
      <stageThreshold>1.2628329917788506e-02</stageThreshold>
      <weakClassifiers>
        <_>
          <internalNodes>
            0 -1 29 1.7466352437622845e-04</internalNodes>
          <leafValues>
            4.7252747416496277e-01 -8.7755101919174194e-01</leafValues></_>
        <_>
          <internalNodes>
            0 -1 19 2.5272930506616831e-03</internalNodes>
          <leafValues>
            3.7467104196548462e-01 -8.7201690673828125e-01</leafValues></_>
        <_>
          <internalNodes>
            0 -1 43 9.6700983704067767e-05</internalNodes>
          <leafValues>
            5.1550829410552979e-01 -7.2977465391159058e-01</leafValues></_></weakClassifiers></_>
    <!-- stage 13 -->
    <_>
      <maxWeakCount>3</maxWeakCount>
      <stageThreshold>-1.4484579861164093e-01</stageThreshold>
      <weakClassifiers>
        <_>
          <internalNodes>
            0 -1 33 1.5052912931423634e-04</internalNodes>
          <leafValues>
            4.2553192377090454e-01 -8.6956518888473511e-01</leafValues></_>
        <_>
          <internalNodes>
            0 -1 39 -8.9238863438367844e-05</internalNodes>
          <leafValues>
            -1. 3.0646485090255737e-01</leafValues></_>
        <_>
          <internalNodes>
            0 -1 22 -3.2166397431865335e-04</internalNodes>
          <leafValues>
            -7.8833246231079102e-01 4.1825455427169800e-01</leafValues></_></weakClassifiers></_>
    <!-- stage 14 -->
    <_>
      <maxWeakCount>3</maxWeakCount>
      <stageThreshold>-2.2727678716182709e-01</stageThreshold>
      <weakClassifiers>
        <_>
          <internalNodes>
            0 -1 32 1.9707300816662610e-04</internalNodes>
          <leafValues>
            3.4693878889083862e-01 -8.0952382087707520e-01</leafValues></_>
        <_>
          <internalNodes>
            0 -1 20 -1.6659506945870817e-04</internalNodes>
          <leafValues>
            3.5846826434135437e-01 -7.7089220285415649e-01</leafValues></_>
        <_>
          <internalNodes>
            0 -1 36 3.0425636214204133e-04</internalNodes>
          <leafValues>
            3.7953850626945496e-01 -9.3268382549285889e-01</leafValues></_></weakClassifiers></_></stages>
  <features>
    <_>
      <rects>
        <_>
          0 0 3 4 -1.</_>
        <_>
          0 2 3 2 2.</_></rects>
      <tilted>0</tilted></_>
    <_>
      <rects>
        <_>
          0 0 10 12 -1.</_>
        <_>
          0 4 10 4 3.</_></rects>
      <tilted>0</tilted></_>
    <_>
      <rects>
        <_>
          0 4 26 15 -1.</_>
        <_>
          0 9 26 5 3.</_></rects>
      <tilted>0</tilted></_>
    <_>
      <rects>
        <_>
          0 21 9 2 -1.</_>
        <_>
          0 22 9 1 2.</_></rects>
      <tilted>0</tilted></_>
    <_>
      <rects>
        <_>
          0 22 30 2 -1.</_>
        <_>
          0 23 30 1 2.</_></rects>
      <tilted>0</tilted></_>
    <_>
      <rects>
        <_>
          1 8 2 5 -1.</_>
        <_>
          2 8 1 5 2.</_></rects>
      <tilted>0</tilted></_>
    <_>
      <rects>
        <_>
          2 2 1 2 -1.</_>
        <_>
          2 3 1 1 2.</_></rects>
      <tilted>0</tilted></_>
    <_>
      <rects>
        <_>
          2 4 30 8 -1.</_>
        <_>
          12 4 10 8 3.</_></rects>
      <tilted>0</tilted></_>
    <_>
      <rects>
        <_>
          3 8 25 16 -1.</_>
        <_>
          3 16 25 8 2.</_></rects>
      <tilted>0</tilted></_>
    <_>
      <rects>
        <_>
          3 11 3 3 -1.</_>
        <_>
          3 12 3 1 3.</_></rects>
      <tilted>0</tilted></_>
    <_>
      <rects>
        <_>
          3 22 1 2 -1.</_>
        <_>
          3 23 1 1 2.</_></rects>
      <tilted>0</tilted></_>
    <_>
      <rects>
        <_>
          4 1 30 21 -1.</_>
        <_>
          4 8 30 7 3.</_></rects>
      <tilted>0</tilted></_>
    <_>
      <rects>
        <_>
          7 0 1 2 -1.</_>
        <_>
          7 1 1 1 2.</_></rects>
      <tilted>0</tilted></_>
    <_>
      <rects>
        <_>
          7 16 27 6 -1.</_>
        <_>
          7 18 27 2 3.</_></rects>
      <tilted>0</tilted></_>
    <_>
      <rects>
        <_>
          9 3 14 18 -1.</_>
        <_>
          9 9 14 6 3.</_></rects>
      <tilted>0</tilted></_>
    <_>
      <rects>
        <_>
          10 2 21 10 -1.</_>
        <_>
          10 7 21 5 2.</_></rects>
      <tilted>0</tilted></_>
    <_>
      <rects>
        <_>
          10 2 22 18 -1.</_>
        <_>
          10 8 22 6 3.</_></rects>
      <tilted>0</tilted></_>
    <_>
      <rects>
        <_>
          10 3 2 10 -1.</_>
        <_>
          11 3 1 10 2.</_></rects>
      <tilted>0</tilted></_>
    <_>
      <rects>
        <_>
          10 12 22 6 -1.</_>
        <_>
          10 12 11 3 2.</_>
        <_>
          21 15 11 3 2.</_></rects>
      <tilted>0</tilted></_>
    <_>
      <rects>
        <_>
          11 22 20 1 -1.</_>
        <_>
          21 22 10 1 2.</_></rects>
      <tilted>0</tilted></_>
    <_>
      <rects>
        <_>
          12 22 19 2 -1.</_>
        <_>
          12 23 19 1 2.</_></rects>
      <tilted>0</tilted></_>
    <_>
      <rects>
        <_>
          13 0 1 2 -1.</_>
        <_>
          13 1 1 1 2.</_></rects>
      <tilted>0</tilted></_>
    <_>
      <rects>
        <_>
          13 0 9 1 -1.</_>
        <_>
          16 0 3 1 3.</_></rects>
      <tilted>0</tilted></_>
    <_>
      <rects>
        <_>
          14 4 8 15 -1.</_>
        <_>
          14 9 8 5 3.</_></rects>
      <tilted>0</tilted></_>
    <_>
      <rects>
        <_>
          16 1 10 3 -1.</_>
        <_>
          21 1 5 3 2.</_></rects>
      <tilted>0</tilted></_>
    <_>
      <rects>
        <_>
          20 18 6 6 -1.</_>
        <_>
          23 18 3 6 2.</_></rects>
      <tilted>0</tilted></_>
    <_>
      <rects>
        <_>
          22 22 2 2 -1.</_>
        <_>
          22 23 2 1 2.</_></rects>
      <tilted>0</tilted></_>
    <_>
      <rects>
        <_>
          26 11 2 1 -1.</_>
        <_>
          27 11 1 1 2.</_></rects>
      <tilted>0</tilted></_>
    <_>
      <rects>
        <_>
          26 22 2 2 -1.</_>
        <_>
          26 23 2 1 2.</_></rects>
      <tilted>0</tilted></_>
    <_>
      <rects>
        <_>
          27 0 3 3 -1.</_>
        <_>
          28 0 1 3 3.</_></rects>
      <tilted>0</tilted></_>
    <_>
      <rects>
        <_>
          27 9 2 2 -1.</_>
        <_>
          28 9 1 2 2.</_></rects>
      <tilted>0</tilted></_>
    <_>
      <rects>
        <_>
          28 0 1 2 -1.</_>
        <_>
          28 1 1 1 2.</_></rects>
      <tilted>0</tilted></_>
    <_>
      <rects>
        <_>
          28 1 3 4 -1.</_>
        <_>
          29 1 1 4 3.</_></rects>
      <tilted>0</tilted></_>
    <_>
      <rects>
        <_>
          28 23 8 1 -1.</_>
        <_>
          32 23 4 1 2.</_></rects>
      <tilted>0</tilted></_>
    <_>
      <rects>
        <_>
          31 0 5 2 -1.</_>
        <_>
          31 1 5 1 2.</_></rects>
      <tilted>0</tilted></_>
    <_>
      <rects>
        <_>
          31 4 3 17 -1.</_>
        <_>
          32 4 1 17 3.</_></rects>
      <tilted>0</tilted></_>
    <_>
      <rects>
        <_>
          31 17 3 5 -1.</_>
        <_>
          32 17 1 5 3.</_></rects>
      <tilted>0</tilted></_>
    <_>
      <rects>
        <_>
          32 8 1 2 -1.</_>
        <_>
          32 9 1 1 2.</_></rects>
      <tilted>0</tilted></_>
    <_>
      <rects>
        <_>
          32 13 2 8 -1.</_>
        <_>
          32 13 1 4 2.</_>
        <_>
          33 17 1 4 2.</_></rects>
      <tilted>0</tilted></_>
    <_>
      <rects>
        <_>
          32 21 2 2 -1.</_>
        <_>
          32 21 1 1 2.</_>
        <_>
          33 22 1 1 2.</_></rects>
      <tilted>0</tilted></_>
    <_>
      <rects>
        <_>
          32 21 4 2 -1.</_>
        <_>
          32 22 4 1 2.</_></rects>
      <tilted>0</tilted></_>
    <_>
      <rects>
        <_>
          33 1 3 9 -1.</_>
        <_>
          34 1 1 9 3.</_></rects>
      <tilted>0</tilted></_>
    <_>
      <rects>
        <_>
          33 2 3 4 -1.</_>
        <_>
          34 2 1 4 3.</_></rects>
      <tilted>0</tilted></_>
    <_>
      <rects>
        <_>
          33 6 3 2 -1.</_>
        <_>
          34 6 1 2 3.</_></rects>
      <tilted>0</tilted></_>
    <_>
      <rects>
        <_>
          34 0 2 1 -1.</_>
        <_>
          35 0 1 1 2.</_></rects>
      <tilted>0</tilted></_>
    <_>
      <rects>
        <_>
          34 0 2 6 -1.</_>
        <_>
          35 0 1 6 2.</_></rects>
      <tilted>0</tilted></_>
    <_>
      <rects>
        <_>
          34 3 2 2 -1.</_>
        <_>
          35 3 1 2 2.</_></rects>
      <tilted>0</tilted></_>
    <_>
      <rects>
        <_>
          34 22 2 2 -1.</_>
        <_>
          35 22 1 2 2.</_></rects>
      <tilted>0</tilted></_></features></cascade>
</opencv_storage>
