<?xml version="1.0"?>
<opencv_storage>
<stage10>
  <maxWeakCount>5</maxWeakCount>
  <stageThreshold>-3.8792899250984192e-01</stageThreshold>
  <weakClassifiers>
    <_>
      <internalNodes>
        0 -1 738 2.4279437959194183e-02</internalNodes>
      <leafValues>
        -4.3157893419265747e-01 9.1111111640930176e-01</leafValues></_>
    <_>
      <internalNodes>
        0 -1 79025 -2.4296568334102631e-01</internalNodes>
      <leafValues>
        8.9224576950073242e-01 -3.1385600566864014e-01</leafValues></_>
    <_>
      <internalNodes>
        0 -1 361589 2.3156932002166286e-05</internalNodes>
      <leafValues>
        -8.6315494775772095e-01 4.6356719732284546e-01</leafValues></_>
    <_>
      <internalNodes>
        0 -1 166 4.2120431317016482e-04</internalNodes>
      <leafValues>
        -7.2177267074584961e-01 4.9470183253288269e-01</leafValues></_>
    <_>
      <internalNodes>
        0 -1 70974 1.5785612049512565e-05</internalNodes>
      <leafValues>
        -5.9039032459259033e-01 6.2571728229522705e-01</leafValues></_></weakClassifiers></stage10>
</opencv_storage>
